FANN_FLO_2.1
num_layers=3
learning_rate=0.700000
connection_rate=1.000000
network_type=0
learning_momentum=0.000000
training_algorithm=2
train_error_function=1
train_stop_function=0
cascade_output_change_fraction=0.010000
quickprop_decay=-0.000100
quickprop_mu=1.750000
rprop_increase_factor=1.200000
rprop_decrease_factor=0.500000
rprop_delta_min=0.000000
rprop_delta_max=50.000000
rprop_delta_zero=0.100000
cascade_output_stagnation_epochs=12
cascade_candidate_change_fraction=0.010000
cascade_candidate_stagnation_epochs=12
cascade_max_out_epochs=150
cascade_min_out_epochs=50
cascade_max_cand_epochs=150
cascade_min_cand_epochs=50
cascade_num_candidate_groups=2
bit_fail_limit=3.49999994039535522461e-01
cascade_candidate_limit=1.00000000000000000000e+03
cascade_weight_multiplier=4.00000005960464477539e-01
cascade_activation_functions_count=10
cascade_activation_functions=3 5 7 8 10 11 14 15 16 17 
cascade_activation_steepnesses_count=4
cascade_activation_steepnesses=2.50000000000000000000e-01 5.00000000000000000000e-01 7.50000000000000000000e-01 1.00000000000000000000e+00 
layer_sizes=3 7 7 
scale_included=0
neurons (num_inputs, activation_function, activation_steepness)=(0, 0, 0.00000000000000000000e+00) (0, 0, 0.00000000000000000000e+00) (0, 0, 0.00000000000000000000e+00) (3, 5, 1.00000000000000000000e+00) (3, 5, 1.00000000000000000000e+00) (3, 5, 1.00000000000000000000e+00) (3, 5, 1.00000000000000000000e+00) (3, 5, 1.00000000000000000000e+00) (3, 5, 1.00000000000000000000e+00) (0, 5, 1.00000000000000000000e+00) (7, 5, 1.00000000000000000000e+00) (7, 5, 1.00000000000000000000e+00) (7, 5, 1.00000000000000000000e+00) (7, 5, 1.00000000000000000000e+00) (7, 5, 1.00000000000000000000e+00) (7, 5, 1.00000000000000000000e+00) (0, 5, 1.00000000000000000000e+00) 
connections (connected_to_neuron, weight)=(0, -5.64625024795532226562e-01) (1, -5.37250220775604248047e-01) (2, -1.13502998352050781250e+02) (0, -1.27554059028625488281e-01) (1, -9.67173022218048572540e-04) (2, 1.74002325534820556641e+00) (0, 4.21443551778793334961e-01) (1, 3.82299274206161499023e-01) (2, 6.42028617858886718750e+00) (0, 4.68993902206420898438e+00) (1, -3.76044400036334991455e-03) (2, -3.77951622009277343750e-01) (0, 9.71672087907791137695e-02) (1, -1.91144738346338272095e-03) (2, 4.62793000042438507080e-02) (0, 4.17895555496215820312e-01) (1, 5.59987246990203857422e-01) (2, 1.50000000000000000000e+03) (3, 3.40455293655395507812e-01) (4, 2.27068018913269042969e+00) (5, 2.85634398460388183594e-01) (6, -3.68215322494506835938e+00) (7, 1.10173746943473815918e-01) (8, 1.81956499814987182617e-01) (9, 3.28366100788116455078e-01) (3, 5.52280783653259277344e-01) (4, 2.15718674659729003906e+00) (5, -1.25874787569046020508e-01) (6, -7.95384719967842102051e-02) (7, 8.22909951210021972656e-01) (8, -2.24417999386787414551e-01) (9, -8.57120901346206665039e-02) (3, 4.37631219625473022461e-01) (4, 3.65922302007675170898e-01) (5, -1.11250624060630798340e-01) (6, 1.56769871711730957031e-01) (7, 9.79897454380989074707e-02) (8, 1.38322375714778900146e-02) (9, -1.10725492238998413086e-01) (3, 5.96914410591125488281e-01) (4, -2.06055611371994018555e-01) (5, 6.95458054542541503906e-02) (6, 1.08814075589179992676e-01) (7, 2.28546448051929473877e-02) (8, -8.77483561635017395020e-02) (9, -6.07348456978797912598e-02) (3, 4.97824400663375854492e-01) (4, -8.67447853088378906250e-01) (5, -1.75009116530418395996e-01) (6, -3.94070371985435485840e-02) (7, -1.49876639246940612793e-01) (8, -6.29780814051628112793e-02) (9, -1.33982405066490173340e-01) (3, 6.84314966201782226562e-01) (4, -1.41160118579864501953e+00) (5, -2.96038836240768432617e-01) (6, -1.22410908341407775879e-01) (7, -2.84352093935012817383e-01) (8, -2.55601495504379272461e-01) (9, -1.28877580165863037109e-01) 
